tree
version=v3
num_class=3
num_tree_per_iteration=3
label_index=0
max_feature_idx=3
objective=multiclass num_class:3
feature_names=Column_0 Column_1 Column_2 Column_3
feature_infos=[4.2999999999999998:7.9000000000000004] [2:4.2000000000000002] [1:6.9000000000000004] [0.10000000000000001:2.5]
tree_sizes=424 517 533 533 525 648 535 525 647 651 542 650 653 544 654 654 530 650 655 543 651 533 546 654 655 547 536 656 530 634

Tree=0
num_leaves=3
num_cat=0
split_feature=2 3
split_gain=77.037 0.0993266
threshold=1.8 1.3500000000000003
decision_type=2 2
left_child=-1 -2
right_child=1 -3
leaf_value=-0.89861228866810983 -1.1849759250317462 -1.1986122886681099
leaf_weight=13.000000387430189 7.3333335518837002 19.666667252779007
leaf_count=39 22 59
internal_value=-1.09861 -1.19491
internal_weight=0 27
internal_count=120 81
is_linear=0
shrinkage=1


Tree=1
num_leaves=4
num_cat=0
split_feature=2 2 2
split_gain=19.2593 46.6913 0.707143
threshold=1.8 4.8500000000000005 5.5500000000000007
decision_type=2 2 2
left_child=-1 -2 -3
right_child=1 2 -4
leaf_value=-1.1986122886681099 -0.91399690405272516 -1.1536122886681097 -1.1986122886681099
leaf_weight=13.000000387430189 13.000000387430193 6.6666668653488141 7.3333335518836975
leaf_count=39 39 20 22
internal_value=-1.09861 -1.05046 -1.17718
internal_weight=0 27 14
internal_count=120 81 42
is_linear=0
shrinkage=1


Tree=2
num_leaves=4
num_cat=0
split_feature=2 2 2
split_gain=68.6813 0.707143 0.111538
threshold=4.8500000000000005 5.5500000000000007 4.2500000000000009
decision_type=2 2 2
left_child=2 -2 -1
right_child=1 -3 -4
leaf_value=-1.1986122886681096 -0.94361228866810976 -0.89861228866810983 -1.1836122886681097
leaf_weight=19.33333390951157 6.6666668653488141 7.3333335518836975 6.666666865348815
leaf_count=58 20 22 20
internal_value=-1.09861 -0.920041 -1.19477
internal_weight=0 14 26
internal_count=120 42 78
is_linear=0
shrinkage=1


Tree=3
num_leaves=4
num_cat=0
split_feature=2 1 3
split_gain=59.8163 0.10178 0.000109341
threshold=1.8 3.0500000000000003 1.3500000000000003
decision_type=2 2 2
left_child=-1 2 -2
right_child=1 -3 -4
leaf_value=0.16544243720553808 -0.095636698222035688 -0.081300406801185193 -0.09512842117646518
leaf_weight=14.074118435382841 6.6514674723148408 7.2334230840206137 11.637004077434538
leaf_count=39 21 23 37
internal_value=0 -0.0913417 -0.0953133
internal_weight=0 25.5219 18.2885
internal_count=120 81 58
is_linear=0
shrinkage=0.1


Tree=4
num_leaves=4
num_cat=0
split_feature=2 3 2
split_gain=16.0333 35.8151 0.30284
threshold=1.8 1.7000000000000004 4.4500000000000011
decision_type=2 2 2
left_child=-1 2 -2
right_child=1 -3 -4
leaf_value=-0.095037173592517468 0.15557243787365682 -0.088388765896737401 0.12758943055821481
leaf_weight=12.250240445137022 8.2632030248641986 11.843127131462095 7.2700675427913657
leaf_count=39 23 37 21
internal_value=0 0.0426028 0.142475
internal_weight=0 27.3764 15.5333
internal_count=120 81 44
is_linear=0
shrinkage=0.1


Tree=5
num_leaves=5
num_cat=0
split_feature=2 2 2 3
split_gain=53.74 0.465937 0.108215 3.30527e-06
threshold=4.8500000000000005 5.5500000000000007 4.2500000000000009 0.45000000000000007
decision_type=2 2 2 2
left_child=2 -2 3 -1
right_child=1 -3 -4 -5
leaf_value=-0.095039367557820831 0.13020455477190876 0.16544243720553806 -0.079901172396721842 -0.095128941970271677
leaf_weight=11.936502426862722 7.1153843402862531 7.9392462968826294 6.3383112847805014 6.2903295755386344
leaf_count=38 20 22 20 20
internal_value=0 0.148788 -0.0911563 -0.0950703
internal_weight=0 15.0546 24.5651 18.2268
internal_count=120 42 78 58
is_linear=0
shrinkage=0.1


Tree=6
num_leaves=4
num_cat=0
split_feature=2 3 3
split_gain=47.8968 0.106112 0.000210938
threshold=1.8 1.3500000000000003 1.7000000000000004
decision_type=2 2 2
left_child=-1 -2 -3
right_child=1 2 -4
leaf_value=0.14279110042430126 -0.076332236658781652 -0.090817379841528253 -0.091538467646234467
leaf_weight=14.560839116573332 6.5401043295860317 6.4355735480785397 10.974916934967039
leaf_count=39 22 22 37
internal_value=0 -0.0871924 -0.0912719
internal_weight=0 23.9506 17.4105
internal_count=120 81 59
is_linear=0
shrinkage=0.1


Tree=7
num_leaves=4
num_cat=0
split_feature=2 3 2
split_gain=13.4467 28.5523 0.184902
threshold=1.8 1.7000000000000004 4.4500000000000011
decision_type=2 2 2
left_child=-1 2 -2
right_child=1 -3 -4
leaf_value=-0.090895833706446161 0.1337391154068793 -0.084319864401876957 0.11223951960372479
leaf_weight=11.437077194452284 8.5654076933860832 11.194786369800566 7.5053301453590384
leaf_count=39 23 37 21
internal_value=0 0.0382894 0.123698
internal_weight=0 27.2655 16.0707
internal_count=120 81 44
is_linear=0
shrinkage=0.1


Tree=8
num_leaves=5
num_cat=0
split_feature=2 2 1 2
split_gain=43.6419 0.367593 0.103767 0.000456331
threshold=4.8500000000000005 5.5500000000000007 2.8500000000000001 1.6500000000000001
decision_type=2 2 2 2
left_child=2 -2 -1 -4
right_child=1 -3 3 -5
leaf_value=-0.076448270182239111 0.11333152493011181 0.14411441091510274 -0.090895646774005898 -0.091968813197458144
leaf_weight=6.546140909194949 7.3604771494865409 8.2020461559295637 9.9707520008087176 6.5752249956130973
leaf_count=22 20 22 34 22
internal_value=0 0.129555 -0.0871057 -0.0913221
internal_weight=0 15.5625 23.0921 16.546
internal_count=120 42 78 56
is_linear=0
shrinkage=0.1


Tree=9
num_leaves=5
num_cat=0
split_feature=2 2 2 2
split_gain=39.5513 0.0396773 0.000899883 0.000135263
threshold=3.5500000000000003 1.4500000000000002 4.8500000000000005 5.5500000000000007
decision_type=2 2 2 2
left_child=1 -1 -2 -4
right_child=2 -3 3 -5
leaf_value=0.12694957481525862 -0.088819547686061887 0.11680148884259051 -0.087881395856787989 -0.087192275240456904
leaf_weight=7.4810298681259138 10.08626312017441 7.9439893364906311 5.4782971739768964 5.9331037104129791
leaf_count=20 36 22 20 22
internal_value=0 0.121723 -0.0881314 -0.0875231
internal_weight=0 15.425 21.4977 11.4114
internal_count=120 42 78 42
is_linear=0
shrinkage=0.1


Tree=10
num_leaves=4
num_cat=0
split_feature=3 2 2
split_gain=11.557 23.6024 0.0779959
threshold=0.45000000000000007 4.9500000000000011 4.4500000000000011
decision_type=2 2 2
left_child=-1 2 -2
right_child=1 -3 -4
leaf_value=-0.089180710952214526 0.1167829634071199 -0.081188564103004984 0.10290984394842913
leaf_weight=10.421605139970778 8.7883780300617271 10.618116885423659 7.5202409923076621
leaf_count=38 24 37 21
internal_value=0 0.0348416 0.110386
internal_weight=0 26.9267 16.3086
internal_count=120 82 45
is_linear=0
shrinkage=0.1


Tree=11
num_leaves=5
num_cat=0
split_feature=2 3 2 1
split_gain=35.9436 0.936949 0.00068694 3.98937e-05
threshold=4.7500000000000009 1.9500000000000002 4.0500000000000007 3.1500000000000008
decision_type=2 2 2 2
left_child=2 -2 3 -1
right_child=1 -3 -4 -5
leaf_value=-0.08776076673797506 0.082703118493040795 0.13057996784074322 -0.088810263201600112 -0.087421378482833656
leaf_weight=6.0246513485908535 7.256045967340472 9.3608329594135267 6.4542832374572745 8.1470791995525342
leaf_count=22 20 25 23 30
internal_value=0 0.109674 -0.0879551 -0.0875657
internal_weight=0 16.6169 20.626 14.1717
internal_count=120 45 75 52
is_linear=0
shrinkage=0.1


Tree=12
num_leaves=5
num_cat=0
split_feature=2 2 2 2
split_gain=32.9259 0.0342981 0.000657883 0.000102465
threshold=3.5500000000000003 1.4500000000000002 4.8500000000000005 5.5500000000000007
decision_type=2 2 2 2
left_child=1 -1 -2 -4
right_child=2 -3 3 -5
leaf_value=0.11527271303718856 -0.085858193457290483 0.10575653091300199 -0.085030198410128988 -0.084406101952968465
leaf_weight=7.3158854246139509 9.3553311228752154 7.8528203368186951 5.0647963285446149 5.4739463925361633
leaf_count=20 36 22 20 22
internal_value=0 0.110346 -0.0852478 -0.084706
internal_weight=0 15.1687 19.8941 10.5387
internal_count=120 42 78 42
is_linear=0
shrinkage=0.1


Tree=13
num_leaves=4
num_cat=0
split_feature=3 3 2
split_gain=9.88103 19.6799 0.0538729
threshold=0.45000000000000007 1.7000000000000004 4.4500000000000011
decision_type=2 2 2
left_child=-1 2 -2
right_child=1 -3 -4
leaf_value=-0.086250421487224699 0.10559801265035691 -0.078506373241207808 0.094036095375424358
leaf_weight=9.6194948852062208 8.6871907114982658 9.9375059306621534 7.5174637138843527
leaf_count=38 24 37 21
internal_value=0 0.032289 0.100234
internal_weight=0 26.1422 16.2047
internal_count=120 82 45
is_linear=0
shrinkage=0.1


Tree=14
num_leaves=5
num_cat=0
split_feature=3 2 2 2
split_gain=29.9279 0.884401 0.000165467 6.64473e-07
threshold=1.7000000000000004 4.4500000000000011 3.5500000000000003 1.4500000000000002
decision_type=2 2 2 2
left_child=1 2 3 -1
right_child=-2 -3 -4 -5
leaf_value=-0.084503998765521893 0.11689493166613152 -0.040493093945254986 -0.0852242714146349 -0.084554375213954494
leaf_weight=4.9957740008831042 13.582102894783018 6.3503321707248679 5.1096302270889273 5.501891553401947
leaf_count=20 37 21 20 22
internal_value=0 -0.0719559 -0.0847576 -0.0845304
internal_weight=0 21.9576 15.6073 10.4977
internal_count=120 83 62 42
is_linear=0
shrinkage=0.1


Tree=15
num_leaves=5
num_cat=0
split_feature=2 2 2 2
split_gain=27.6927 0.0323234 0.000523672 0.000124307
threshold=3.5500000000000003 1.4500000000000002 4.8500000000000005 5.5500000000000007
decision_type=2 2 2 2
left_child=1 -1 -2 -4
right_child=2 -3 3 -5
leaf_value=0.10643613672712804 -0.083390781458670404 0.097040190506791801 -0.082690456311681926 -0.081973626275860148
leaf_weight=7.021035820245741 8.6336392909288424 7.6512489914894104 4.6780447661876661 5.0099726319313049
leaf_count=20 36 22 20 22
internal_value=0 0.101536 -0.0828245 -0.0823198
internal_weight=0 14.6723 18.3217 9.68802
internal_count=120 42 78 42
is_linear=0
shrinkage=0.1


Tree=16
num_leaves=4
num_cat=0
split_feature=2 2 3
split_gain=8.48727 16.9742 0.0571993
threshold=1.8 4.9500000000000011 1.3500000000000003
decision_type=2 2 2
left_child=-1 2 -2
right_child=1 -3 -4
leaf_value=-0.082542518665107673 0.10029013976898751 -0.076022726423434189 0.088191531420475797
leaf_weight=9.0286445170640928 7.9233215451240557 9.3468968868255597 7.7103368639945984
leaf_count=39 22 37 22
internal_value=0 0.0305854 0.0943232
internal_weight=0 24.9806 15.6337
internal_count=120 81 44
is_linear=0
shrinkage=0.1


Tree=17
num_leaves=5
num_cat=0
split_feature=2 2 1 2
split_gain=25.5267 0.284987 0.110995 0.00260381
threshold=4.8500000000000005 5.5500000000000007 2.8500000000000001 1.6500000000000001
decision_type=2 2 2 2
left_child=2 -2 -1 -4
right_child=1 -3 3 -5
leaf_value=-0.066191198972665635 0.08252979789827844 0.10999922004947112 -0.082069920396302898 -0.084925865019744654
leaf_weight=5.3722686022520092 7.3170537054538709 7.8060289919376373 7.7737787812948209 5.4167830795049667
leaf_count=22 20 22 34 22
internal_value=0 0.0967086 -0.0783078 -0.0832427
internal_weight=0 15.1231 18.5628 13.1906
internal_count=120 42 78 56
is_linear=0
shrinkage=0.1


Tree=18
num_leaves=5
num_cat=0
split_feature=2 2 2 3
split_gain=23.4587 0.0319269 0.000511106 0.00020046
threshold=3.5500000000000003 1.4500000000000002 5.5500000000000007 1.5500000000000003
decision_type=2 2 2 2
left_child=1 -1 3 -2
right_child=2 -3 -4 -5
leaf_value=0.099609285539287745 -0.080793156773585423 0.090040615597957008 -0.079858258814291427 -0.081633992483493845
leaf_weight=6.640279173851015 7.7804630398750323 7.3431210219860077 4.5498833805322638 4.4610152542591095
leaf_count=20 36 22 22 20
internal_value=0 0.0945845 -0.0807632 -0.0810996
internal_weight=0 13.9834 16.7914 12.2415
internal_count=120 42 78 56
is_linear=0
shrinkage=0.1


Tree=19
num_leaves=4
num_cat=0
split_feature=3 3 2
split_gain=7.41205 14.091 0.04766
threshold=0.45000000000000007 1.7000000000000004 4.4500000000000011
decision_type=2 2 2
left_child=-1 2 -2
right_child=1 -3 -4
leaf_value=-0.082134777840159878 0.091326754747165312 -0.07363535234228509 0.080174475032492351
leaf_weight=8.0730372071266157 8.0907771885395068 8.6287341266870481 7.2800154983997336
leaf_count=38 24 37 21
internal_value=0 0.0286337 0.0860447
internal_weight=0 23.9995 15.3708
internal_count=120 82 45
is_linear=0
shrinkage=0.1


Tree=20
num_leaves=5
num_cat=0
split_feature=2 3 2 0
split_gain=21.5624 0.61402 0.00107857 6.6252e-05
threshold=4.7500000000000009 1.9500000000000002 4.0500000000000007 5.1500000000000012
decision_type=2 2 2 2
left_child=2 -2 3 -1
right_child=1 -3 -4 -5
leaf_value=-0.079956119634644107 0.062538015637852606 0.10247156897054033 -0.081910310557466837 -0.08045721890183101
leaf_weight=6.4373770803213173 7.0448795557022086 8.4914413094520551 5.2115753740072241 4.4709685444831848
leaf_count=31 20 25 23 21
internal_value=0 0.0843639 -0.0807269 -0.0801615
internal_weight=0 15.5363 16.1199 10.9083
internal_count=120 45 75 52
is_linear=0
shrinkage=0.1


Tree=21
num_leaves=4
num_cat=0
split_feature=2 1 2
split_gain=20.0577 0.130073 0.00115688
threshold=1.8 3.0500000000000003 4.8500000000000005
decision_type=2 2 2
left_child=-1 2 -2
right_child=1 -3 -4
leaf_value=0.095307942310349447 -0.0805591218026879 -0.059955945889188268 -0.078542924535892955
leaf_weight=12.256134420633318 6.6219659894704836 4.6868353486061087 4.990793913602829
leaf_count=39 32 23 26
internal_value=0 -0.0740175 -0.0796926
internal_weight=0 16.2996 11.6128
internal_count=120 81 58
is_linear=0
shrinkage=0.1


Tree=22
num_leaves=4
num_cat=0
split_feature=3 2 2
split_gain=6.41005 12.1714 0.0264044
threshold=0.45000000000000007 4.9500000000000011 4.4500000000000011
decision_type=2 2 2
left_child=-1 2 -2
right_child=1 -3 -4
leaf_value=-0.080296461897107541 0.085460814394638318 -0.071250003954173954 0.076970161230929979
leaf_weight=7.3420586287975338 7.7064021527767199 8.102197051048277 6.9800747334957123
leaf_count=38 24 37 21
internal_value=0 0.0271438 0.0814254
internal_weight=0 22.7887 14.6865
internal_count=120 82 45
is_linear=0
shrinkage=0.1


Tree=23
num_leaves=5
num_cat=0
split_feature=2 3 2 0
split_gain=18.2837 0.57888 0.000864254 5.29858e-05
threshold=4.7500000000000009 1.9500000000000002 4.0500000000000007 5.1500000000000012
decision_type=2 2 2 2
left_child=2 -2 3 -1
right_child=1 -3 -4 -5
leaf_value=-0.078193775216341549 0.057128485312302663 0.096612802531031217 -0.080024217566541184 -0.078663989019350733
leaf_weight=5.8313609659671801 6.9402512907981855 7.9854261577129364 4.7816736549139014 4.0684007108211517
leaf_count=31 20 25 23 21
internal_value=0 0.0782531 -0.0789202 -0.078387
internal_weight=0 14.9257 14.6814 9.89976
internal_count=120 45 75 52
is_linear=0
shrinkage=0.1


Tree=24
num_leaves=5
num_cat=0
split_feature=2 2 2 3
split_gain=17.3148 0.0241489 0.000326103 0.00018516
threshold=3.5500000000000003 1.4500000000000002 5.5500000000000007 1.5500000000000003
decision_type=2 2 2 2
left_child=1 -1 3 -2
right_child=2 -3 -4 -5
leaf_value=0.089758335734086356 -0.077510425514449033 0.080877465611230132 -0.076745877420126216 -0.078391533870205199
leaf_weight=5.7323544323444384 6.4832789301872236 6.5724769532680511 3.760107308626174 3.7729584127664566
leaf_count=20 36 22 22 20
internal_value=0 0.0850147 -0.0775425 -0.0778346
internal_weight=0 12.3048 14.0163 10.2562
internal_count=120 42 78 56
is_linear=0
shrinkage=0.1


Tree=25
num_leaves=4
num_cat=0
split_feature=3 3 2
split_gain=5.56085 10.3092 0.0237597
threshold=0.45000000000000007 1.7000000000000004 4.4500000000000011
decision_type=2 2 2
left_child=-1 2 -2
right_child=1 -3 -4
leaf_value=-0.078981899504766015 0.080053683213730964 -0.069461790020874131 0.071830566419809214
leaf_weight=6.6360834985971477 7.2646806240081805 7.4412411153316489 6.8052396476268768
leaf_count=38 24 37 21
internal_value=0 0.0257311 0.0760764
internal_weight=0 21.5112 14.0699
internal_count=120 82 45
is_linear=0
shrinkage=0.1


Tree=26
num_leaves=4
num_cat=0
split_feature=3 2 2
split_gain=15.7469 0.973658 0.000452888
threshold=1.7000000000000004 4.5500000000000007 1.8
decision_type=2 2 2
left_child=1 2 -1
right_child=-2 -3 -4
leaf_value=-0.076643807746235582 0.090410011298178827 -0.020550950280755077 -0.07787102429810927
leaf_weight=6.6185031682252937 11.403125017881392 4.0458561778068534 5.5110217034816742
leaf_count=39 37 14 30
internal_value=0 -0.0630317 -0.0772014
internal_weight=0 16.1754 12.1295
internal_count=120 83 69
is_linear=0
shrinkage=0.1


Tree=27
num_leaves=5
num_cat=0
split_feature=2 2 2 3
split_gain=14.8896 0.0270379 0.000280046 0.000142132
threshold=3.5500000000000003 1.4500000000000002 5.5500000000000007 1.5500000000000003
decision_type=2 2 2 2
left_child=1 -1 3 -2
right_child=2 -3 -4 -5
leaf_value=0.086195804605484039 -0.076207948924915836 0.076447245095622118 -0.075444279495507888 -0.077016791582277852
leaf_weight=5.2569990158081072 5.9018198847770673 6.2010503113269806 3.3872744441032401 3.4381176084280014
leaf_count=20 36 22 22 20
internal_value=0 0.0809199 -0.0762232 -0.0765057
internal_weight=0 11.458 12.7272 9.33994
internal_count=120 42 78 56
is_linear=0
shrinkage=0.1


Tree=28
num_leaves=4
num_cat=0
split_feature=2 2 3
split_gain=4.87821 9.24297 0.0277209
threshold=1.8 4.9500000000000011 1.3500000000000003
decision_type=2 2 2
left_child=-1 2 -2
right_child=1 -3 -4
leaf_value=-0.076459271730411518 0.079358376909873019 -0.067726817810155424 0.070155940039251435
leaf_weight=6.1838198602199581 6.4223416745662707 6.9917492270469657 6.6762651205062866
leaf_count=39 22 37 22
internal_value=0 0.0251124 0.074668
internal_weight=0 20.0904 13.0986
internal_count=120 81 44
is_linear=0
shrinkage=0.1


Tree=29
num_leaves=5
num_cat=0
split_feature=2 2 1 2
split_gain=13.5592 0.310201 0.135781 0.00709147
threshold=4.8500000000000005 5.5500000000000007 2.8500000000000001 1.8
decision_type=2 2 2 2
left_child=2 -2 -1 -4
right_child=1 -3 3 -5
leaf_value=-0.055242485081098247 0.059384258689429349 0.090863602008421002 -0.075337889925662788 -0.0811196499608344
leaf_weight=3.9377843886613872 6.3932374715805036 6.1335279941558838 5.7987741082906705 3.3451117724180222
leaf_count=22 20 22 38 18
internal_value=0 0.0747976 -0.0707673 -0.077453
internal_weight=0 12.5268 13.0817 9.14389
internal_count=120 42 78 56
is_linear=0
shrinkage=0.1


end of trees

feature_importances:
Column_2=70
Column_3=25
Column_1=6
Column_0=2

parameters:
[boosting: gbdt]
[objective: multiclass]
[metric: multi_logloss]
[tree_learner: serial]
[device_type: cpu]
[data: ]
[valid: ]
[num_iterations: 10]
[learning_rate: 0.1]
[num_leaves: 31]
[num_threads: 0]
[deterministic: 0]
[force_col_wise: 0]
[force_row_wise: 0]
[histogram_pool_size: -1]
[max_depth: -1]
[min_data_in_leaf: 20]
[min_sum_hessian_in_leaf: 0.001]
[bagging_fraction: 1]
[pos_bagging_fraction: 1]
[neg_bagging_fraction: 1]
[bagging_freq: 0]
[bagging_seed: 3]
[feature_fraction: 1]
[feature_fraction_bynode: 1]
[feature_fraction_seed: 2]
[extra_trees: 0]
[extra_seed: 6]
[early_stopping_round: 0]
[first_metric_only: 0]
[max_delta_step: 0]
[lambda_l1: 0]
[lambda_l2: 0]
[linear_lambda: 0]
[min_gain_to_split: 0]
[drop_rate: 0.1]
[max_drop: 50]
[skip_drop: 0.5]
[xgboost_dart_mode: 0]
[uniform_drop: 0]
[drop_seed: 4]
[top_rate: 0.2]
[other_rate: 0.1]
[min_data_per_group: 100]
[max_cat_threshold: 32]
[cat_l2: 10]
[cat_smooth: 10]
[max_cat_to_onehot: 4]
[top_k: 20]
[monotone_constraints: ]
[monotone_constraints_method: basic]
[monotone_penalty: 0]
[feature_contri: ]
[forcedsplits_filename: ]
[refit_decay_rate: 0.9]
[cegb_tradeoff: 1]
[cegb_penalty_split: 0]
[cegb_penalty_feature_lazy: ]
[cegb_penalty_feature_coupled: ]
[path_smooth: 0]
[interaction_constraints: ]
[verbosity: 1]
[saved_feature_importance_type: 0]
[linear_tree: 0]
[max_bin: 255]
[max_bin_by_feature: ]
[min_data_in_bin: 3]
[bin_construct_sample_cnt: 200000]
[data_random_seed: 1]
[is_enable_sparse: 1]
[enable_bundle: 1]
[use_missing: 1]
[zero_as_missing: 0]
[feature_pre_filter: 1]
[pre_partition: 0]
[two_round: 0]
[header: 0]
[label_column: ]
[weight_column: ]
[group_column: ]
[ignore_column: ]
[categorical_feature: ]
[forcedbins_filename: ]
[precise_float_parser: 0]
[objective_seed: 5]
[num_class: 3]
[is_unbalance: 0]
[scale_pos_weight: 1]
[sigmoid: 1]
[boost_from_average: 1]
[reg_sqrt: 0]
[alpha: 0.9]
[fair_c: 1]
[poisson_max_delta_step: 0.7]
[tweedie_variance_power: 1.5]
[lambdarank_truncation_level: 30]
[lambdarank_norm: 1]
[label_gain: ]
[eval_at: ]
[multi_error_top_k: 1]
[auc_mu_weights: ]
[num_machines: 1]
[local_listen_port: 12400]
[time_out: 120]
[machine_list_filename: ]
[machines: ]
[gpu_platform_id: -1]
[gpu_device_id: -1]
[gpu_use_dp: 0]
[num_gpu: 1]

end of parameters

pandas_categorical:null
